booster[0]:
0:[f28<-9.53674316e-07] yes=1,no=2,missing=1
	1:[f55<-9.53674316e-07] yes=3,no=4,missing=3
		3:leaf=1.71217716
		4:leaf=-1.70044053
	2:[f108<-9.53674316e-07] yes=5,no=6,missing=5
		5:leaf=-1.94070864
		6:leaf=1.85964918
booster[1]:
0:[f59<-9.53674316e-07] yes=1,no=2,missing=1
	1:[f28<-9.53674316e-07] yes=3,no=4,missing=3
		3:leaf=0.78471756
		4:leaf=-0.968530357
	2:leaf=-6.23624468
booster[2]:
0:[f101<-9.53674316e-07] yes=1,no=2,missing=1
	1:[f66<-9.53674316e-07] yes=3,no=4,missing=3
		3:leaf=0.658725023
		4:leaf=5.77228642
	2:[f110<-9.53674316e-07] yes=5,no=6,missing=5
		5:leaf=-0.791407049
		6:leaf=-9.421422
booster[3]:
0:[f26<-9.53674316e-07] yes=1,no=2,missing=1
	1:[f38<-9.53674316e-07] yes=3,no=4,missing=3
		3:leaf=0.614153326
		4:leaf=-0.877905607
	2:leaf=1.07747853
booster[4]:
0:[f108<-9.53674316e-07] yes=1,no=2,missing=1
	1:[f35<-9.53674316e-07] yes=3,no=4,missing=3
		3:leaf=-1.26934469
		4:leaf=0.152607277
	2:leaf=2.92190909
booster[5]:
0:[f22<-9.53674316e-07] yes=1,no=2,missing=1
	1:[f23<-9.53674316e-07] yes=3,no=4,missing=3
		3:leaf=0.431742132
		4:leaf=-1.53846073
	2:[f35<-9.53674316e-07] yes=5,no=6,missing=5
		5:leaf=-3.02413678
		6:leaf=-1.02315068
booster[6]:
0:[f28<-9.53674316e-07] yes=1,no=2,missing=1
	1:[f23<-9.53674316e-07] yes=3,no=4,missing=3
		3:leaf=0.777142286
		4:leaf=-1.19710124
	2:[f108<-9.53674316e-07] yes=5,no=6,missing=5
		5:leaf=-0.912605286
		6:leaf=0.836115122
booster[7]:
0:[f38<-9.53674316e-07] yes=1,no=2,missing=1
	1:[f111<-9.53674316e-07] yes=3,no=4,missing=3
		3:leaf=-0.0180106498
		4:leaf=1.4361918
	2:[f26<-9.53674316e-07] yes=5,no=6,missing=5
		5:leaf=-0.908311546
		6:leaf=0.890622675
booster[8]:
0:[f22<-9.53674316e-07] yes=1,no=2,missing=1
	1:[f101<-9.53674316e-07] yes=3,no=4,missing=3
		3:leaf=-0.515293062
		4:leaf=0.56883812
	2:leaf=-1.01502442
booster[9]:
0:[f114<-9.53674316e-07] yes=1,no=2,missing=1
	1:[f28<-9.53674316e-07] yes=3,no=4,missing=3
		3:leaf=0.217203051
		4:leaf=-0.734555721
	2:[f60<-9.53674316e-07] yes=5,no=6,missing=5
		5:leaf=3.63442755
		6:leaf=-0.609474957
